svm_type epsilon_svr
kernel_type rbf
gamma 0.0078125
nr_class 2
total_sv 6
rho -0.0999801
SV
-0.03125 1:0.294118 2:0.802632 3:0.406977 4:0.382979 5:0.328182 6:0.419134 7:0.414214 8:1 9:0.5 10:6.43834e-17 
0.03125 1:0.294118 2:0.802632 3:0.406977 4:0.468085 5:0.328182 6:0.419134 7:0.414214 8:1 9:0.5 10:6.43834e-17 
0.03125 1:0.294118 2:0.802632 3:0.406977 4:0.553191 5:0.328182 6:0.419134 7:0.414214 8:1 9:0.5 10:6.43834e-17 
-0.03125 1:0.294118 2:0.802632 3:0.406977 4:0.638298 5:0.328182 6:0.419134 7:0.414214 8:1 9:0.5 10:6.43834e-17 
0.03125 1:0.294118 2:0.802632 3:0.406977 4:0.638298 5:0.557273 6:0.419134 7:0.0521781 8:0.878514 9:0.5 10:1.08644e-17 
-0.03125 1:0.294118 2:0.802632 3:0.406977 4:0.723404 5:0.557273 6:0.419134 7:0.0521781 8:0.878514 9:0.5 10:1.08644e-17 
