svm_type epsilon_svr
kernel_type rbf
gamma 0.5
nr_class 2
total_sv 360
rho 964.012
SV
-2048 2:1 3:0.22093 4:0.361702 5:0.145455 6:0.236902 7:0.414214 8:1 9:0.5 10:6.43834e-17 
-2048 2:1 3:0.22093 4:0.361702 5:0.145455 6:0.236902 7:0.776249 8:0.878514 9:0.5 10:1.17902e-16 
2048 2:1 3:0.22093 4:0.361702 5:0.287273 6:0.236902 7:0.414214 8:1 9:0.5 10:6.43834e-17 
-2048 2:1 3:0.22093 4:0.361702 5:0.287273 6:0.236902 7:0.776249 8:0.878514 9:0.5 10:1.17902e-16 
-413.6458546939404 2:1 3:0.22093 4:0.361702 5:0.429091 6:0.236902 7:0.776249 8:0.878514 9:0.5 10:1.17902e-16 
2048 2:1 3:0.22093 4:0.361702 5:0.570909 6:0.236902 7:0.776249 8:0.878514 9:0.5 10:1.17902e-16 
-2048 2:1 3:0.22093 4:0.361702 5:0.570909 6:0.236902 7:1 8:0.56046 9:0.5 10:1.50979e-16 
2048 2:1 3:0.22093 4:0.361702 5:0.712727 6:0.236902 7:0.776249 8:0.878514 9:0.5 10:1.17902e-16 
-2048 2:1 3:0.22093 4:0.361702 5:0.712727 6:0.236902 7:1 8:0.56046 9:0.5 10:1.50979e-16 
441.9688415842941 2:1 3:0.22093 4:0.361702 5:0.854545 6:0.236902 7:0.776249 8:0.878514 9:0.5 10:1.17902e-16 
2048 2:1 3:0.22093 4:0.421277 5:0.287273 6:0.236902 7:0.414214 8:1 9:0.5 10:6.43834e-17 
2048 2:1 3:0.22093 4:0.421277 5:0.287273 6:0.236902 7:0.776249 8:0.878514 9:0.5 10:1.17902e-16 
578.564280799219 2:1 3:0.22093 4:0.421277 5:0.429091 6:0.236902 7:0.776249 8:0.878514 9:0.5 10:1.17902e-16 
2048 2:1 3:0.22093 4:0.421277 5:0.570909 6:0.236902 7:0.776249 8:0.878514 9:0.5 10:1.17902e-16 
-1658.013611568987 2:1 3:0.22093 4:0.421277 5:0.712727 6:0.236902 7:0.776249 8:0.878514 9:0.5 10:1.17902e-16 
2048 2:1 3:0.22093 4:0.421277 5:0.712727 6:0.236902 7:1 8:0.56046 9:0.5 10:1.50979e-16 
-2048 2:1 3:0.22093 4:0.421277 5:0.854545 6:0.236902 7:0.776249 8:0.878514 9:0.5 10:1.17902e-16 
-2048 2:1 3:0.22093 4:0.480851 5:0.145455 6:0.236902 7:0.414214 8:1 9:0.5 10:6.43834e-17 
1804.666385318759 2:1 3:0.22093 4:0.480851 5:0.145455 6:0.236902 7:0.776249 8:0.878514 9:0.5 10:1.17902e-16 
-784.796449855865 2:1 3:0.22093 4:0.480851 5:0.287273 6:0.236902 7:0.414214 8:1 9:0.5 10:6.43834e-17 
2048 2:1 3:0.22093 4:0.540426 5:0.145455 6:0.236902 7:0.414214 8:1 9:0.5 10:6.43834e-17 
-2048 2:1 3:0.22093 4:0.540426 5:0.287273 6:0.236902 7:0.414214 8:1 9:0.5 10:6.43834e-17 
-39.89103323845382 2:1 3:0.22093 4:0.540426 5:0.287273 6:0.236902 7:0.0521781 8:0.878514 9:0.5 10:1.08644e-17 
51.27988373936062 2:1 3:0.22093 4:0.540426 5:0.429091 6:0.236902 7:0.0521781 8:0.878514 9:0.5 10:1.08644e-17 
-2048 2:1 3:0.22093 4:0.540426 5:0.712727 6:0.236902 7:1 8:0.167324 9:0.5 10:1.50979e-16 
632.9618439806816 2:1 3:0.22093 4:0.540426 5:0.854545 6:0.236902 7:1 8:0.56046 9:0.5 10:1.50979e-16 
2048 2:1 3:0.22093 4:0.6 5:0.145455 6:0.236902 7:0.414214 8:1 9:0.5 10:6.43834e-17 
-165.74038538502 2:1 3:0.22093 4:0.6 5:0.145455 6:0.236902 7:0.776249 8:0.878514 9:0.5 10:1.17902e-16 
-2048 2:1 3:0.22093 4:0.6 5:0.287273 6:0.236902 7:0.414214 8:1 9:0.5 10:6.43834e-17 
2048 2:1 3:0.22093 4:0.6 5:0.287273 6:0.236902 7:0.0521781 8:0.878514 9:0.5 10:1.08644e-17 
-345.3689874298743 2:1 3:0.22093 4:0.6 5:0.712727 6:0.236902 7:1 8:0.167324 9:0.5 10:1.50979e-16 
-2048 2:1 3:0.22093 4:0.659574 5:0.145455 6:0.236902 7:0.414214 8:1 9:0.5 10:6.43834e-17 
1278.014094735707 2:1 3:0.22093 4:0.659574 5:0.145455 6:0.236902 7:0.0521781 8:0.878514 9:0.5 10:1.08644e-17 
-2048 2:1 3:0.22093 4:0.659574 5:0.287273 6:0.236902 7:0.414214 8:1 9:0.5 10:6.43834e-17 
2048 2:1 3:0.22093 4:0.659574 5:0.287273 6:0.236902 7:0.0521781 8:0.878514 9:0.5 10:1.08644e-17 
-1368.048377977864 2:1 3:0.22093 4:0.659574 5:0.429091 6:0.236902 7:0.0521781 8:0.878514 9:0.5 10:1.08644e-17 
-2048 2:1 3:0.22093 4:0.659574 5:0.570909 6:0.236902 7:0.0521781 8:0.878514 9:0.5 10:1.08644e-17 
2048 2:1 3:0.22093 4:0.659574 5:0.712727 6:0.236902 7:1 8:0.167324 9:0.5 10:1.50979e-16 
1980.587968309744 2:1 3:0.22093 4:0.659574 5:0.854545 6:0.236902 7:1 8:0.56046 9:0.5 10:1.50979e-16 
-2048 1:0.0196078 2:0.276316 4:0.357447 5:0.395455 6:0.0205011 7:0.414214 8:1 9:0.5 10:6.43834e-17 
-2048 1:0.0196078 2:0.276316 4:0.357447 5:0.395455 6:0.0205011 7:1 8:0.56046 9:0.5 10:1.50979e-16 
-1352.581080727171 1:0.0196078 2:0.276316 4:0.357447 5:0.437273 6:0.0205011 7:0.414214 8:1 9:0.5 10:6.43834e-17 
2048 1:0.0196078 2:0.276316 4:0.357447 5:0.479091 6:0.0205011 7:1 8:0.56046 9:0.5 10:1.50979e-16 
2048 1:0.0196078 2:0.276316 4:0.357447 5:0.520909 6:0.0205011 7:1 8:0.56046 9:0.5 10:1.50979e-16 
-2048 1:0.0196078 2:0.276316 4:0.357447 5:0.562727 6:0.0205011 7:0.776249 8:0.878514 9:0.5 10:1.17902e-16 
2048 1:0.0196078 2:0.276316 4:0.357447 5:0.562727 6:0.0205011 7:1 8:0.56046 9:0.5 10:1.50979e-16 
-2048 1:0.0196078 2:0.276316 4:0.357447 5:0.604545 6:0.0205011 7:0.776249 8:0.878514 9:0.5 10:1.17902e-16 
592.4109678317672 1:0.0196078 2:0.276316 4:0.357447 5:0.604545 6:0.0205011 7:1 8:0.56046 9:0.5 10:1.50979e-16 
-2048 1:0.0196078 2:0.276316 4:0.418723 5:0.395455 6:0.0205011 7:1 8:0.56046 9:0.5 10:1.50979e-16 
1520.494104166712 1:0.0196078 2:0.276316 4:0.418723 5:0.437273 6:0.0205011 7:0.776249 8:0.878514 9:0.5 10:1.17902e-16 
2048 1:0.0196078 2:0.276316 4:0.418723 5:0.479091 6:0.0205011 7:0.414214 8:1 9:0.5 10:6.43834e-17 
1409.382480739444 1:0.0196078 2:0.276316 4:0.418723 5:0.479091 6:0.0205011 7:1 8:0.56046 9:0.5 10:1.50979e-16 
238.4183980353949 1:0.0196078 2:0.276316 4:0.418723 5:0.520909 6:0.0205011 7:0.414214 8:1 9:0.5 10:6.43834e-17 
2048 1:0.0196078 2:0.276316 4:0.418723 5:0.520909 6:0.0205011 7:1 8:0.56046 9:0.5 10:1.50979e-16 
-2048 1:0.0196078 2:0.276316 4:0.418723 5:0.562727 6:0.0205011 7:0.776249 8:0.878514 9:0.5 10:1.17902e-16 
-2048 1:0.0196078 2:0.276316 4:0.418723 5:0.604545 6:0.0205011 7:0.776249 8:0.878514 9:0.5 10:1.17902e-16 
2048 1:0.0196078 2:0.276316 4:0.48 5:0.395455 6:0.0205011 7:0.776249 8:0.878514 9:0.5 10:1.17902e-16 
1741.804190199606 1:0.0196078 2:0.276316 4:0.48 5:0.437273 6:0.0205011 7:0.414214 8:1 9:0.5 10:6.43834e-17 
2048 1:0.0196078 2:0.276316 4:0.48 5:0.437273 6:0.0205011 7:0.776249 8:0.878514 9:0.5 10:1.17902e-16 
2048 1:0.0196078 2:0.276316 4:0.48 5:0.479091 6:0.0205011 7:0.414214 8:1 9:0.5 10:6.43834e-17 
1039.180930402381 1:0.0196078 2:0.276316 4:0.48 5:0.479091 6:0.0205011 7:1 8:0.167324 9:0.5 10:1.50979e-16 
10.76520327133597 1:0.0196078 2:0.276316 4:0.48 5:0.520909 6:0.0205011 7:1 8:0.56046 9:0.5 10:1.50979e-16 
-2048 1:0.0196078 2:0.276316 4:0.48 5:0.604545 6:0.0205011 7:1 8:0.56046 9:0.5 10:1.50979e-16 
68.84620231635394 1:0.0196078 2:0.276316 4:0.541277 5:0.437273 6:0.0205011 7:0.414214 8:1 9:0.5 10:6.43834e-17 
-2048 1:0.0196078 2:0.276316 4:0.541277 5:0.437273 6:0.0205011 7:0.0521781 8:0.878514 9:0.5 10:1.08644e-17 
2048 1:0.0196078 2:0.276316 4:0.541277 5:0.479091 6:0.0205011 7:0.414214 8:1 9:0.5 10:6.43834e-17 
-2048 1:0.0196078 2:0.276316 4:0.541277 5:0.479091 6:0.0205011 7:0.0521781 8:0.878514 9:0.5 10:1.08644e-17 
-1489.383876280666 1:0.0196078 2:0.276316 4:0.541277 5:0.520909 6:0.0205011 7:1 8:0.167324 9:0.5 10:1.50979e-16 
-1237.192180199805 1:0.0196078 2:0.276316 4:0.541277 5:0.520909 6:0.0205011 7:0.0521781 8:0.878514 9:0.5 10:1.08644e-17 
-2048 1:0.0196078 2:0.276316 4:0.541277 5:0.604545 6:0.0205011 7:1 8:0.56046 9:0.5 10:1.50979e-16 
-2048 1:0.0196078 2:0.276316 4:0.602553 5:0.437273 6:0.0205011 7:0.0521781 8:0.878514 9:0.5 10:1.08644e-17 
74.30783630886719 1:0.0196078 2:0.276316 4:0.602553 5:0.479091 6:0.0205011 7:1 8:0.167324 9:0.5 10:1.50979e-16 
1873.811489196888 1:0.0196078 2:0.276316 4:0.602553 5:0.479091 6:0.0205011 7:0.0521781 8:0.878514 9:0.5 10:1.08644e-17 
-1137.902998312165 1:0.0196078 2:0.276316 4:0.602553 5:0.520909 6:0.0205011 7:0.414214 8:1 9:0.5 10:6.43834e-17 
2048 1:0.0196078 2:0.276316 4:0.602553 5:0.520909 6:0.0205011 7:0.0521781 8:0.878514 9:0.5 10:1.08644e-17 
217.9512405890718 1:0.0196078 2:0.276316 4:0.602553 5:0.562727 6:0.0205011 7:1 8:0.56046 9:0.5 10:1.50979e-16 
2048 1:0.0196078 2:0.276316 4:0.602553 5:0.562727 6:0.0205011 7:0.0521781 8:0.878514 9:0.5 10:1.08644e-17 
-2048 1:0.0196078 2:0.276316 4:0.602553 5:0.604545 6:0.0205011 7:1 8:0.56046 9:0.5 10:1.50979e-16 
144.6504101481399 1:0.0196078 2:0.276316 4:0.602553 5:0.604545 6:0.0205011 7:0.0521781 8:0.878514 9:0.5 10:1.08644e-17 
466.3936716546182 1:0.294118 2:0.802632 3:0.406977 4:0.297872 5:0.213636 6:0.419134 7:0.414214 8:1 9:0.5 10:6.43834e-17 
2048 1:0.294118 2:0.802632 3:0.406977 4:0.297872 5:0.213636 6:0.419134 7:0.776249 8:0.878514 9:0.5 10:1.17902e-16 
2048 1:0.294118 2:0.802632 3:0.406977 4:0.297872 5:0.328182 6:0.419134 7:0.414214 8:1 9:0.5 10:6.43834e-17 
2048 1:0.294118 2:0.802632 3:0.406977 4:0.297872 5:0.328182 6:0.419134 7:0.776249 8:0.878514 9:0.5 10:1.17902e-16 
-2048 1:0.294118 2:0.802632 3:0.406977 4:0.297872 5:0.442727 6:0.419134 7:0.776249 8:0.878514 9:0.5 10:1.17902e-16 
-2048 1:0.294118 2:0.802632 3:0.406977 4:0.297872 5:0.557273 6:0.419134 7:0.776249 8:0.878514 9:0.5 10:1.17902e-16 
2048 1:0.294118 2:0.802632 3:0.406977 4:0.297872 5:0.557273 6:0.419134 7:1 8:0.56046 9:0.5 10:1.50979e-16 
-2048 1:0.294118 2:0.802632 3:0.406977 4:0.297872 5:0.671818 6:0.419134 7:0.776249 8:0.878514 9:0.5 10:1.17902e-16 
-2048 1:0.294118 2:0.802632 3:0.406977 4:0.297872 5:0.671818 6:0.419134 7:1 8:0.56046 9:0.5 10:1.50979e-16 
1664.037417594831 1:0.294118 2:0.802632 3:0.406977 4:0.297872 5:0.786364 6:0.419134 7:0.776249 8:0.878514 9:0.5 10:1.17902e-16 
2048 1:0.294118 2:0.802632 3:0.406977 4:0.297872 5:0.786364 6:0.419134 7:1 8:0.56046 9:0.5 10:1.50979e-16 
-2048 1:0.294118 2:0.802632 3:0.406977 4:0.382979 5:0.213636 6:0.419134 7:0.414214 8:1 9:0.5 10:6.43834e-17 
2048 1:0.294118 2:0.802632 3:0.406977 4:0.382979 5:0.213636 6:0.419134 7:0.776249 8:0.878514 9:0.5 10:1.17902e-16 
2048 1:0.294118 2:0.802632 3:0.406977 4:0.382979 5:0.328182 6:0.419134 7:0.414214 8:1 9:0.5 10:6.43834e-17 
2048 1:0.294118 2:0.802632 3:0.406977 4:0.382979 5:0.328182 6:0.419134 7:0.776249 8:0.878514 9:0.5 10:1.17902e-16 
-2048 1:0.294118 2:0.802632 3:0.406977 4:0.382979 5:0.442727 6:0.419134 7:0.776249 8:0.878514 9:0.5 10:1.17902e-16 
-2048 1:0.294118 2:0.802632 3:0.406977 4:0.382979 5:0.557273 6:0.419134 7:0.776249 8:0.878514 9:0.5 10:1.17902e-16 
-2048 1:0.294118 2:0.802632 3:0.406977 4:0.382979 5:0.671818 6:0.419134 7:0.776249 8:0.878514 9:0.5 10:1.17902e-16 
-2048 1:0.294118 2:0.802632 3:0.406977 4:0.382979 5:0.671818 6:0.419134 7:1 8:0.56046 9:0.5 10:1.50979e-16 
2048 1:0.294118 2:0.802632 3:0.406977 4:0.382979 5:0.786364 6:0.419134 7:0.776249 8:0.878514 9:0.5 10:1.17902e-16 
-2048 1:0.294118 2:0.802632 3:0.406977 4:0.382979 5:0.786364 6:0.419134 7:1 8:0.56046 9:0.5 10:1.50979e-16 
-2048 1:0.294118 2:0.802632 3:0.406977 4:0.468085 5:0.213636 6:0.419134 7:0.414214 8:1 9:0.5 10:6.43834e-17 
-2048 1:0.294118 2:0.802632 3:0.406977 4:0.468085 5:0.213636 6:0.419134 7:0.776249 8:0.878514 9:0.5 10:1.17902e-16 
2048 1:0.294118 2:0.802632 3:0.406977 4:0.468085 5:0.328182 6:0.419134 7:0.414214 8:1 9:0.5 10:6.43834e-17 
2048 1:0.294118 2:0.802632 3:0.406977 4:0.468085 5:0.671818 6:0.419134 7:1 8:0.167324 9:0.5 10:1.50979e-16 
-2048 1:0.294118 2:0.802632 3:0.406977 4:0.468085 5:0.786364 6:0.419134 7:1 8:0.56046 9:0.5 10:1.50979e-16 
-2048 1:0.294118 2:0.802632 3:0.406977 4:0.553191 5:0.213636 6:0.419134 7:0.414214 8:1 9:0.5 10:6.43834e-17 
2048 1:0.294118 2:0.802632 3:0.406977 4:0.553191 5:0.328182 6:0.419134 7:0.414214 8:1 9:0.5 10:6.43834e-17 
2048 1:0.294118 2:0.802632 3:0.406977 4:0.553191 5:0.671818 6:0.419134 7:1 8:0.167324 9:0.5 10:1.50979e-16 
-2048 1:0.294118 2:0.802632 3:0.406977 4:0.553191 5:0.786364 6:0.419134 7:1 8:0.56046 9:0.5 10:1.50979e-16 
2048 1:0.294118 2:0.802632 3:0.406977 4:0.638298 5:0.213636 6:0.419134 7:0.414214 8:1 9:0.5 10:6.43834e-17 
-677.9368936156145 1:0.294118 2:0.802632 3:0.406977 4:0.638298 5:0.213636 6:0.419134 7:0.0521781 8:0.878514 9:0.5 10:1.08644e-17 
2048 1:0.294118 2:0.802632 3:0.406977 4:0.638298 5:0.328182 6:0.419134 7:0.414214 8:1 9:0.5 10:6.43834e-17 
-1754.583705227121 1:0.294118 2:0.802632 3:0.406977 4:0.638298 5:0.328182 6:0.419134 7:0.0521781 8:0.878514 9:0.5 10:1.08644e-17 
-2048 1:0.294118 2:0.802632 3:0.406977 4:0.638298 5:0.442727 6:0.419134 7:0.0521781 8:0.878514 9:0.5 10:1.08644e-17 
2048 1:0.294118 2:0.802632 3:0.406977 4:0.638298 5:0.557273 6:0.419134 7:0.0521781 8:0.878514 9:0.5 10:1.08644e-17 
-2048 1:0.294118 2:0.802632 3:0.406977 4:0.638298 5:0.671818 6:0.419134 7:1 8:0.167324 9:0.5 10:1.50979e-16 
-288.91450397008 1:0.294118 2:0.802632 3:0.406977 4:0.638298 5:0.786364 6:0.419134 7:1 8:0.56046 9:0.5 10:1.50979e-16 
2048 1:0.294118 2:0.802632 3:0.406977 4:0.723404 5:0.213636 6:0.419134 7:0.414214 8:1 9:0.5 10:6.43834e-17 
-1944.702455951184 1:0.294118 2:0.802632 3:0.406977 4:0.723404 5:0.213636 6:0.419134 7:0.0521781 8:0.878514 9:0.5 10:1.08644e-17 
2048 1:0.294118 2:0.802632 3:0.406977 4:0.723404 5:0.328182 6:0.419134 7:0.414214 8:1 9:0.5 10:6.43834e-17 
-2048 1:0.294118 2:0.802632 3:0.406977 4:0.723404 5:0.328182 6:0.419134 7:0.0521781 8:0.878514 9:0.5 10:1.08644e-17 
-2048 1:0.294118 2:0.802632 3:0.406977 4:0.723404 5:0.442727 6:0.419134 7:0.0521781 8:0.878514 9:0.5 10:1.08644e-17 
2048 1:0.294118 2:0.802632 3:0.406977 4:0.723404 5:0.557273 6:0.419134 7:0.0521781 8:0.878514 9:0.5 10:1.08644e-17 
-2048 1:0.294118 2:0.802632 3:0.406977 4:0.723404 5:0.671818 6:0.419134 7:1 8:0.167324 9:0.5 10:1.50979e-16 
2048 1:0.294118 2:0.802632 3:0.406977 4:0.723404 5:0.671818 6:0.419134 7:0.0521781 8:0.878514 9:0.5 10:1.08644e-17 
2048 1:0.294118 2:0.802632 3:0.406977 4:0.723404 5:0.786364 6:0.419134 7:1 8:0.56046 9:0.5 10:1.50979e-16 
-459.3632889880065 1:0.352941 2:0.5 3:0.232558 4:0.285106 5:0.318182 6:0.248292 7:0.776249 8:0.878514 9:0.5 10:1.17902e-16 
-2048 1:0.352941 2:0.5 3:0.232558 4:0.285106 5:0.390909 6:0.248292 7:0.414214 8:1 9:0.5 10:6.43834e-17 
-2048 1:0.352941 2:0.5 3:0.232558 4:0.285106 5:0.390909 6:0.248292 7:0.776249 8:0.878514 9:0.5 10:1.17902e-16 
2048 1:0.352941 2:0.5 3:0.232558 4:0.285106 5:0.390909 6:0.248292 7:1 8:0.56046 9:0.5 10:1.50979e-16 
-2048 1:0.352941 2:0.5 3:0.232558 4:0.285106 5:0.463636 6:0.248292 7:0.414214 8:1 9:0.5 10:6.43834e-17 
-2048 1:0.352941 2:0.5 3:0.232558 4:0.285106 5:0.463636 6:0.248292 7:1 8:0.56046 9:0.5 10:1.50979e-16 
-2048 1:0.352941 2:0.5 3:0.232558 4:0.285106 5:0.536364 6:0.248292 7:1 8:0.56046 9:0.5 10:1.50979e-16 
1878.957058812306 1:0.352941 2:0.5 3:0.232558 4:0.285106 5:0.609091 6:0.248292 7:0.776249 8:0.878514 9:0.5 10:1.17902e-16 
-2048 1:0.352941 2:0.5 3:0.232558 4:0.285106 5:0.609091 6:0.248292 7:1 8:0.56046 9:0.5 10:1.50979e-16 
2048 1:0.352941 2:0.5 3:0.232558 4:0.285106 5:0.681818 6:0.248292 7:0.776249 8:0.878514 9:0.5 10:1.17902e-16 
2048 1:0.352941 2:0.5 3:0.232558 4:0.285106 5:0.681818 6:0.248292 7:1 8:0.56046 9:0.5 10:1.50979e-16 
2048 1:0.352941 2:0.5 3:0.232558 4:0.375319 5:0.318182 6:0.248292 7:0.414214 8:1 9:0.5 10:6.43834e-17 
-2048 1:0.352941 2:0.5 3:0.232558 4:0.375319 5:0.318182 6:0.248292 7:0.776249 8:0.878514 9:0.5 10:1.17902e-16 
2048 1:0.352941 2:0.5 3:0.232558 4:0.375319 5:0.390909 6:0.248292 7:0.414214 8:1 9:0.5 10:6.43834e-17 
300.8533392472984 1:0.352941 2:0.5 3:0.232558 4:0.375319 5:0.463636 6:0.248292 7:0.776249 8:0.878514 9:0.5 10:1.17902e-16 
2048 1:0.352941 2:0.5 3:0.232558 4:0.375319 5:0.536364 6:0.248292 7:0.776249 8:0.878514 9:0.5 10:1.17902e-16 
2048 1:0.352941 2:0.5 3:0.232558 4:0.375319 5:0.536364 6:0.248292 7:1 8:0.56046 9:0.5 10:1.50979e-16 
2048 1:0.352941 2:0.5 3:0.232558 4:0.375319 5:0.609091 6:0.248292 7:0.776249 8:0.878514 9:0.5 10:1.17902e-16 
2048 1:0.352941 2:0.5 3:0.232558 4:0.375319 5:0.609091 6:0.248292 7:1 8:0.56046 9:0.5 10:1.50979e-16 
2048 1:0.352941 2:0.5 3:0.232558 4:0.375319 5:0.681818 6:0.248292 7:0.776249 8:0.878514 9:0.5 10:1.17902e-16 
-2048 1:0.352941 2:0.5 3:0.232558 4:0.375319 5:0.681818 6:0.248292 7:1 8:0.56046 9:0.5 10:1.50979e-16 
2048 1:0.352941 2:0.5 3:0.232558 4:0.465532 5:0.318182 6:0.248292 7:0.414214 8:1 9:0.5 10:6.43834e-17 
-2048 1:0.352941 2:0.5 3:0.232558 4:0.465532 5:0.318182 6:0.248292 7:0.776249 8:0.878514 9:0.5 10:1.17902e-16 
633.854375254931 1:0.352941 2:0.5 3:0.232558 4:0.465532 5:0.390909 6:0.248292 7:0.414214 8:1 9:0.5 10:6.43834e-17 
-2048 1:0.352941 2:0.5 3:0.232558 4:0.465532 5:0.463636 6:0.248292 7:0.414214 8:1 9:0.5 10:6.43834e-17 
2048 1:0.352941 2:0.5 3:0.232558 4:0.465532 5:0.609091 6:0.248292 7:1 8:0.167324 9:0.5 10:1.50979e-16 
-2048 1:0.352941 2:0.5 3:0.232558 4:0.465532 5:0.681818 6:0.248292 7:1 8:0.56046 9:0.5 10:1.50979e-16 
-2048 1:0.352941 2:0.5 3:0.232558 4:0.555745 5:0.390909 6:0.248292 7:0.414214 8:1 9:0.5 10:6.43834e-17 
-2048 1:0.352941 2:0.5 3:0.232558 4:0.555745 5:0.463636 6:0.248292 7:0.414214 8:1 9:0.5 10:6.43834e-17 
-1967.847365755327 1:0.352941 2:0.5 3:0.232558 4:0.555745 5:0.609091 6:0.248292 7:1 8:0.167324 9:0.5 10:1.50979e-16 
2048 1:0.352941 2:0.5 3:0.232558 4:0.555745 5:0.681818 6:0.248292 7:1 8:0.56046 9:0.5 10:1.50979e-16 
-2048 1:0.352941 2:0.5 3:0.232558 4:0.645957 5:0.318182 6:0.248292 7:0.414214 8:1 9:0.5 10:6.43834e-17 
2048 1:0.352941 2:0.5 3:0.232558 4:0.645957 5:0.318182 6:0.248292 7:0.0521781 8:0.878514 9:0.5 10:1.08644e-17 
-2048 1:0.352941 2:0.5 3:0.232558 4:0.645957 5:0.390909 6:0.248292 7:0.414214 8:1 9:0.5 10:6.43834e-17 
2048 1:0.352941 2:0.5 3:0.232558 4:0.645957 5:0.390909 6:0.248292 7:0.0521781 8:0.878514 9:0.5 10:1.08644e-17 
-2048 1:0.352941 2:0.5 3:0.232558 4:0.645957 5:0.463636 6:0.248292 7:0.414214 8:1 9:0.5 10:6.43834e-17 
2048 1:0.352941 2:0.5 3:0.232558 4:0.645957 5:0.463636 6:0.248292 7:0.0521781 8:0.878514 9:0.5 10:1.08644e-17 
-808.9889522205807 1:0.352941 2:0.5 3:0.232558 4:0.645957 5:0.536364 6:0.248292 7:1 8:0.167324 9:0.5 10:1.50979e-16 
1439.111838167635 1:0.352941 2:0.5 3:0.232558 4:0.645957 5:0.536364 6:0.248292 7:0.0521781 8:0.878514 9:0.5 10:1.08644e-17 
2048 1:0.352941 2:0.5 3:0.232558 4:0.645957 5:0.609091 6:0.248292 7:1 8:0.167324 9:0.5 10:1.50979e-16 
-2048 1:0.352941 2:0.5 3:0.232558 4:0.645957 5:0.609091 6:0.248292 7:0.0521781 8:0.878514 9:0.5 10:1.08644e-17 
2048 1:0.352941 2:0.5 3:0.232558 4:0.645957 5:0.681818 6:0.248292 7:1 8:0.56046 9:0.5 10:1.50979e-16 
-2048 1:0.352941 2:0.5 3:0.232558 4:0.645957 5:0.681818 6:0.248292 7:0.0521781 8:0.878514 9:0.5 10:1.08644e-17 
-280.8051237810887 1:0.784314 2:0.894737 3:1 4:0.0212766 5:0.181818 6:0.102506 7:0.279628 8:0.791673 9:0.345492 10:1 
2048 1:0.784314 2:0.894737 3:1 4:0.0212766 5:0.181818 6:0.544419 7:0.061863 8:0.628276 9:0.0954919 10:0.618037 
299.7353209914238 1:0.784314 2:0.894737 3:1 4:0.0212766 5:0.181818 6:0.544419 7:0.279628 8:0.791673 9:0.345492 10:1 
428.6020559725674 1:0.784314 2:0.894737 3:1 4:1 5:0.309091 6:0.544419 7:0.061863 8:0.0995089 9:0.904508 10:0.618037 
617.5880716809695 1:0.784314 2:0.894737 3:1 4:0.0212766 5:0.309091 6:0.544419 7:0.061863 8:0.628276 9:0.0954919 10:0.618037 
-1943.148536250565 1:0.784314 2:0.894737 3:1 4:0.0212766 5:0.309091 6:0.544419 7:0.279628 8:0.791673 9:0.345492 10:1 
-2048 1:0.784314 2:0.894737 3:1 4:0.0212766 5:0.436364 6:0.544419 7:0.061863 8:0.628276 9:0.0954919 10:0.618037 
2048 1:0.784314 2:0.894737 3:1 4:0.0212766 5:0.436364 6:0.544419 7:0.279628 8:0.791673 9:0.345492 10:1 
31.80618945446427 1:0.784314 2:0.894737 3:1 4:1 5:0.563636 6:0.544419 7:0.061863 8:0.0995089 9:0.904508 10:0.618037 
-2048 1:0.784314 2:0.894737 3:1 4:0.0212766 5:0.563636 6:0.544419 7:0.061863 8:0.628276 9:0.0954919 10:0.618037 
388.0037590843606 1:0.784314 2:0.894737 3:1 4:0.0212766 5:0.690909 6:0.102506 7:0.849743 8:0.363892 9:1 
-2048 1:0.784314 2:0.894737 3:1 4:0.0212766 5:0.690909 6:0.544419 7:0.849743 8:0.363892 9:1 
119.7125020966492 1:0.784314 2:0.894737 3:1 4:0.0212766 5:0.690909 6:0.544419 7:0.061863 8:0.628276 9:0.0954919 10:0.618037 
1977.295931785742 1:0.784314 2:0.894737 3:1 4:0.0212766 5:0.818182 6:0.102506 7:0.849743 8:0.363892 9:1 
-746.5714814889701 1:0.784314 2:0.894737 3:1 4:1 5:0.818182 6:0.544419 7:0.849743 8:0.363892 10:1.28767e-16 
-289.1724243943204 1:0.784314 2:0.894737 3:1 4:1 5:0.818182 6:0.544419 7:0.061863 8:0.0995089 9:0.904508 10:0.618037 
-1958.78208004325 1:0.784314 2:0.894737 3:1 4:0.0212766 5:0.818182 6:0.544419 7:0.849743 8:0.363892 9:1 
2048 1:0.784314 2:0.894737 3:1 4:0.0212766 5:0.818182 6:0.544419 7:0.061863 8:0.628276 9:0.0954919 10:0.618037 
679.49974590288 1:0.784314 2:0.894737 3:1 4:0.191489 5:1 6:0.102506 7:0.670212 8:0.727785 9:0.0954919 10:0.618037 
-1354.011469506622 1:0.784314 2:0.894737 3:1 4:0.191489 5:1 6:0.544419 7:0.414214 8:0.813689 10:1.28767e-16 
-2048 1:0.784314 2:0.894737 3:1 4:0.191489 5:1 6:0.544419 7:0.670212 8:0.727785 9:0.0954919 10:0.618037 
-502.9408004683719 1:0.784314 2:0.894737 3:1 4:0.191489 6:0.544419 7:0.158216 9:0.0954919 10:0.618037 
2048 1:0.784314 2:0.894737 3:1 4:0.319149 5:1 6:0.544419 7:0.414214 8:0.813689 10:1.28767e-16 
755.8369463142606 1:0.784314 2:0.894737 3:1 4:0.319149 5:1 6:0.544419 7:0.670212 8:0.727785 9:0.0954919 10:0.618037 
-1867.308820571034 1:0.784314 2:0.894737 3:1 4:0.446809 5:1 6:0.544419 7:0.414214 8:0.813689 10:1.28767e-16 
-2048 1:0.784314 2:0.894737 3:1 4:0.574468 5:1 6:0.544419 7:0.414214 8:0.813689 10:1.28767e-16 
1679.640350529665 1:0.784314 2:0.894737 3:1 4:0.574468 6:0.544419 8:0.502887 9:0.654508 10:0.999999 
1269.308109342764 1:0.784314 2:0.894737 3:1 4:0.702128 5:1 6:0.544419 7:0.414214 8:0.813689 10:1.28767e-16 
-1910.266475303882 1:0.784314 2:0.894737 3:1 4:0.702128 5:1 6:0.544419 7:0.670212 9:0.904508 10:0.618037 
-2048 1:0.784314 2:0.894737 3:1 4:0.702128 6:0.544419 8:0.502887 9:0.654508 10:0.999999 
-91.80194184744573 1:0.784314 2:0.894737 3:1 4:0.829787 6:0.102506 8:0.502887 9:0.654508 10:0.999999 
2048 1:0.784314 2:0.894737 3:1 4:0.829787 5:1 6:0.544419 7:0.414214 8:0.813689 10:1.28767e-16 
2048 1:0.784314 2:0.894737 3:1 4:0.829787 5:1 6:0.544419 7:0.670212 9:0.904508 10:0.618037 
396.5997617095553 1:0.784314 2:0.894737 3:1 4:0.829787 6:0.544419 8:0.502887 9:0.654508 10:0.999999 
-9.030875509885643 1:0.784314 2:0.894737 3:1 4:0.191489 5:0.181818 6:1 7:0.414214 8:1 9:0.5 10:6.43834e-17 
-2048 1:0.784314 2:0.894737 3:1 4:0.191489 5:0.181818 6:1 7:0.776249 8:0.878514 9:0.5 10:1.17902e-16 
-2048 1:0.784314 2:0.894737 3:1 4:0.191489 5:0.309091 6:1 7:0.414214 8:1 9:0.5 10:6.43834e-17 
2048 1:0.784314 2:0.894737 3:1 4:0.191489 5:0.309091 6:1 7:0.776249 8:0.878514 9:0.5 10:1.17902e-16 
2048 1:0.784314 2:0.894737 3:1 4:0.191489 5:0.436364 6:1 7:0.776249 8:0.878514 9:0.5 10:1.17902e-16 
2048 1:0.784314 2:0.894737 3:1 4:0.191489 5:0.563636 6:1 7:0.776249 8:0.878514 9:0.5 10:1.17902e-16 
2048 1:0.784314 2:0.894737 3:1 4:0.191489 5:0.563636 6:1 7:1 8:0.56046 9:0.5 10:1.50979e-16 
-2048 1:0.784314 2:0.894737 3:1 4:0.191489 5:0.690909 6:1 7:0.776249 8:0.878514 9:0.5 10:1.17902e-16 
2048 1:0.784314 2:0.894737 3:1 4:0.191489 5:0.690909 6:1 7:1 8:0.56046 9:0.5 10:1.50979e-16 
-2048 1:0.784314 2:0.894737 3:1 4:0.191489 5:0.818182 6:1 7:0.776249 8:0.878514 9:0.5 10:1.17902e-16 
2048 1:0.784314 2:0.894737 3:1 4:0.191489 5:0.818182 6:1 7:1 8:0.56046 9:0.5 10:1.50979e-16 
2048 1:0.784314 2:0.894737 3:1 4:0.319149 5:0.181818 6:1 7:0.414214 8:1 9:0.5 10:6.43834e-17 
-2048 1:0.784314 2:0.894737 3:1 4:0.319149 5:0.181818 6:1 7:0.776249 8:0.878514 9:0.5 10:1.17902e-16 
-2048 1:0.784314 2:0.894737 3:1 4:0.319149 5:0.309091 6:1 7:0.414214 8:1 9:0.5 10:6.43834e-17 
2048 1:0.784314 2:0.894737 3:1 4:0.319149 5:0.818182 6:1 7:1 8:0.56046 9:0.5 10:1.50979e-16 
-2048 1:0.784314 2:0.894737 3:1 4:0.446809 5:0.181818 6:1 7:0.414214 8:1 9:0.5 10:6.43834e-17 
2048 1:0.784314 2:0.894737 3:1 4:0.446809 5:0.309091 6:1 7:0.414214 8:1 9:0.5 10:6.43834e-17 
2048 1:0.784314 2:0.894737 3:1 4:0.446809 5:0.818182 6:1 7:1 8:0.56046 9:0.5 10:1.50979e-16 
-2048 1:0.784314 2:0.894737 3:1 4:0.574468 5:0.181818 6:1 7:0.414214 8:1 9:0.5 10:6.43834e-17 
-2048 1:0.784314 2:0.894737 3:1 4:0.574468 5:0.309091 6:1 7:0.414214 8:1 9:0.5 10:6.43834e-17 
2048 1:0.784314 2:0.894737 3:1 4:0.574468 5:0.690909 6:1 7:1 8:0.167324 9:0.5 10:1.50979e-16 
-2048 1:0.784314 2:0.894737 3:1 4:0.574468 5:0.818182 6:1 7:1 8:0.56046 9:0.5 10:1.50979e-16 
1868.149356855995 1:0.784314 2:0.894737 3:1 4:0.702128 5:0.181818 6:1 7:0.414214 8:1 9:0.5 10:6.43834e-17 
2048 1:0.784314 2:0.894737 3:1 4:0.702128 5:0.181818 6:1 7:0.0521781 8:0.878514 9:0.5 10:1.08644e-17 
5.25325345850173 1:0.784314 2:0.894737 3:1 4:0.702128 5:0.309091 6:1 7:0.0521781 8:0.878514 9:0.5 10:1.08644e-17 
2048 1:0.784314 2:0.894737 3:1 4:0.702128 5:0.436364 6:1 7:0.0521781 8:0.878514 9:0.5 10:1.08644e-17 
2048 1:0.784314 2:0.894737 3:1 4:0.702128 5:0.690909 6:1 7:1 8:0.167324 9:0.5 10:1.50979e-16 
-2048 1:0.784314 2:0.894737 3:1 4:0.702128 5:0.818182 6:1 7:1 8:0.56046 9:0.5 10:1.50979e-16 
2048 1:0.784314 2:0.894737 3:1 4:0.829787 5:0.181818 6:1 7:0.414214 8:1 9:0.5 10:6.43834e-17 
-633.5898376004575 1:0.784314 2:0.894737 3:1 4:0.829787 5:0.181818 6:1 7:0.0521781 8:0.878514 9:0.5 10:1.08644e-17 
-2048 1:0.784314 2:0.894737 3:1 4:0.829787 5:0.309091 6:1 7:0.0521781 8:0.878514 9:0.5 10:1.08644e-17 
-2048 1:0.784314 2:0.894737 3:1 4:0.829787 5:0.436364 6:1 7:0.0521781 8:0.878514 9:0.5 10:1.08644e-17 
2048 1:0.784314 2:0.894737 3:1 4:0.829787 5:0.563636 6:1 7:0.0521781 8:0.878514 9:0.5 10:1.08644e-17 
-2048 1:0.784314 2:0.894737 3:1 4:0.829787 5:0.690909 6:1 7:1 8:0.167324 9:0.5 10:1.50979e-16 
-325.1536170760626 1:0.784314 2:0.894737 3:1 4:0.829787 5:0.690909 6:1 7:0.0521781 8:0.878514 9:0.5 10:1.08644e-17 
-2048 1:0.784314 2:0.894737 3:1 4:0.829787 5:0.818182 6:1 7:1 8:0.56046 9:0.5 10:1.50979e-16 
2022.698180520451 1:0.882353 3:0.825581 5:0.490909 7:0.279628 8:0.791673 9:0.345492 10:1 
-2048 1:0.882353 3:0.825581 5:0.509091 7:0.279628 8:0.791673 9:0.345492 10:1 
2048 1:0.882353 3:0.825581 4:0.170213 5:0.490909 6:0.829157 7:0.414214 8:1 9:0.5 10:6.43834e-17 
2048 1:0.882353 3:0.825581 4:0.170213 5:0.490909 6:0.829157 7:0.776249 8:0.878514 9:0.5 10:1.17902e-16 
512.1609547742462 1:0.882353 3:0.825581 4:0.170213 5:0.490909 6:0.829157 7:1 8:0.56046 9:0.5 10:1.50979e-16 
2048 1:0.882353 3:0.825581 4:0.170213 5:0.494545 6:0.829157 7:0.414214 8:1 9:0.5 10:6.43834e-17 
2048 1:0.882353 3:0.825581 4:0.170213 5:0.494545 6:0.829157 7:0.776249 8:0.878514 9:0.5 10:1.17902e-16 
1791.844481265772 1:0.882353 3:0.825581 4:0.170213 5:0.498182 6:0.829157 7:0.414214 8:1 9:0.5 10:6.43834e-17 
2048 1:0.882353 3:0.825581 4:0.170213 5:0.498182 6:0.829157 7:0.776249 8:0.878514 9:0.5 10:1.17902e-16 
2048 1:0.882353 3:0.825581 4:0.170213 5:0.501818 6:0.829157 7:0.776249 8:0.878514 9:0.5 10:1.17902e-16 
1401.588111686305 1:0.882353 3:0.825581 4:0.170213 5:0.505455 6:0.829157 7:0.776249 8:0.878514 9:0.5 10:1.17902e-16 
1842.850153232708 1:0.882353 3:0.825581 4:0.170213 5:0.509091 6:0.829157 7:0.414214 8:1 9:0.5 10:6.43834e-17 
110.2883276896434 1:0.882353 3:0.825581 4:0.170213 5:0.509091 6:0.829157 7:0.776249 8:0.878514 9:0.5 10:1.17902e-16 
-1641.681693353014 1:0.882353 3:0.825581 4:0.170213 5:0.509091 6:0.829157 7:1 8:0.56046 9:0.5 10:1.50979e-16 
-2048 1:0.882353 3:0.825581 4:0.306383 5:0.490909 6:0.829157 7:0.414214 8:1 9:0.5 10:6.43834e-17 
-2048 1:0.882353 3:0.825581 4:0.306383 5:0.490909 6:0.829157 7:0.776249 8:0.878514 9:0.5 10:1.17902e-16 
-2048 1:0.882353 3:0.825581 4:0.306383 5:0.490909 6:0.829157 7:1 8:0.56046 9:0.5 10:1.50979e-16 
-2048 1:0.882353 3:0.825581 4:0.306383 5:0.494545 6:0.829157 7:0.414214 8:1 9:0.5 10:6.43834e-17 
-2048 1:0.882353 3:0.825581 4:0.306383 5:0.494545 6:0.829157 7:0.776249 8:0.878514 9:0.5 10:1.17902e-16 
-2048 1:0.882353 3:0.825581 4:0.306383 5:0.494545 6:0.829157 7:1 8:0.56046 9:0.5 10:1.50979e-16 
-2048 1:0.882353 3:0.825581 4:0.306383 5:0.498182 6:0.829157 7:0.414214 8:1 9:0.5 10:6.43834e-17 
-2048 1:0.882353 3:0.825581 4:0.306383 5:0.498182 6:0.829157 7:0.776249 8:0.878514 9:0.5 10:1.17902e-16 
-2048 1:0.882353 3:0.825581 4:0.306383 5:0.498182 6:0.829157 7:1 8:0.56046 9:0.5 10:1.50979e-16 
-2048 1:0.882353 3:0.825581 4:0.306383 5:0.501818 6:0.829157 7:0.414214 8:1 9:0.5 10:6.43834e-17 
-2048 1:0.882353 3:0.825581 4:0.306383 5:0.501818 6:0.829157 7:0.776249 8:0.878514 9:0.5 10:1.17902e-16 
-2048 1:0.882353 3:0.825581 4:0.306383 5:0.501818 6:0.829157 7:1 8:0.56046 9:0.5 10:1.50979e-16 
-2048 1:0.882353 3:0.825581 4:0.306383 5:0.505455 6:0.829157 7:0.414214 8:1 9:0.5 10:6.43834e-17 
-2048 1:0.882353 3:0.825581 4:0.306383 5:0.505455 6:0.829157 7:0.776249 8:0.878514 9:0.5 10:1.17902e-16 
-2048 1:0.882353 3:0.825581 4:0.306383 5:0.505455 6:0.829157 7:1 8:0.56046 9:0.5 10:1.50979e-16 
-2048 1:0.882353 3:0.825581 4:0.306383 5:0.509091 6:0.829157 7:0.414214 8:1 9:0.5 10:6.43834e-17 
-2048 1:0.882353 3:0.825581 4:0.306383 5:0.509091 6:0.829157 7:0.776249 8:0.878514 9:0.5 10:1.17902e-16 
-2048 1:0.882353 3:0.825581 4:0.306383 5:0.509091 6:0.829157 7:1 8:0.56046 9:0.5 10:1.50979e-16 
2048 1:0.882353 3:0.825581 4:0.442553 5:0.490909 6:0.829157 7:0.414214 8:1 9:0.5 10:6.43834e-17 
2048 1:0.882353 3:0.825581 4:0.442553 5:0.490909 6:0.829157 7:0.776249 8:0.878514 9:0.5 10:1.17902e-16 
2048 1:0.882353 3:0.825581 4:0.442553 5:0.490909 6:0.829157 7:1 8:0.56046 9:0.5 10:1.50979e-16 
-2048 1:0.882353 3:0.825581 4:0.442553 5:0.494545 6:0.829157 7:0.414214 8:1 9:0.5 10:6.43834e-17 
2048 1:0.882353 3:0.825581 4:0.442553 5:0.494545 6:0.829157 7:0.776249 8:0.878514 9:0.5 10:1.17902e-16 
2048 1:0.882353 3:0.825581 4:0.442553 5:0.494545 6:0.829157 7:1 8:0.56046 9:0.5 10:1.50979e-16 
-2048 1:0.882353 3:0.825581 4:0.442553 5:0.498182 6:0.829157 7:0.414214 8:1 9:0.5 10:6.43834e-17 
2048 1:0.882353 3:0.825581 4:0.442553 5:0.498182 6:0.829157 7:1 8:0.56046 9:0.5 10:1.50979e-16 
-2048 1:0.882353 3:0.825581 4:0.442553 5:0.501818 6:0.829157 7:0.414214 8:1 9:0.5 10:6.43834e-17 
2048 1:0.882353 3:0.825581 4:0.442553 5:0.501818 6:0.829157 7:1 8:0.56046 9:0.5 10:1.50979e-16 
2048 1:0.882353 3:0.825581 4:0.442553 5:0.505455 6:0.829157 7:0.414214 8:1 9:0.5 10:6.43834e-17 
2048 1:0.882353 3:0.825581 4:0.442553 5:0.505455 6:0.829157 7:1 8:0.56046 9:0.5 10:1.50979e-16 
-2048 1:0.882353 3:0.825581 4:0.442553 5:0.509091 6:0.829157 7:0.414214 8:1 9:0.5 10:6.43834e-17 
-2048 1:0.882353 3:0.825581 4:0.442553 5:0.509091 6:0.829157 7:1 8:0.56046 9:0.5 10:1.50979e-16 
2048 1:0.882353 3:0.825581 4:0.578723 5:0.490909 6:0.829157 7:0.414214 8:1 9:0.5 10:6.43834e-17 
-914.3821990928544 1:0.882353 3:0.825581 4:0.578723 5:0.490909 6:0.829157 7:1 8:0.167324 9:0.5 10:1.50979e-16 
2048 1:0.882353 3:0.825581 4:0.578723 5:0.494545 6:0.829157 7:0.414214 8:1 9:0.5 10:6.43834e-17 
2048 1:0.882353 3:0.825581 4:0.578723 5:0.494545 6:0.829157 7:1 8:0.56046 9:0.5 10:1.50979e-16 
2048 1:0.882353 3:0.825581 4:0.578723 5:0.498182 6:0.829157 7:0.414214 8:1 9:0.5 10:6.43834e-17 
2048 1:0.882353 3:0.825581 4:0.578723 5:0.498182 6:0.829157 7:1 8:0.56046 9:0.5 10:1.50979e-16 
2048 1:0.882353 3:0.825581 4:0.578723 5:0.501818 6:0.829157 7:0.414214 8:1 9:0.5 10:6.43834e-17 
2048 1:0.882353 3:0.825581 4:0.578723 5:0.501818 6:0.829157 7:1 8:0.56046 9:0.5 10:1.50979e-16 
2048 1:0.882353 3:0.825581 4:0.578723 5:0.505455 6:0.829157 7:0.414214 8:1 9:0.5 10:6.43834e-17 
2048 1:0.882353 3:0.825581 4:0.578723 5:0.505455 6:0.829157 7:1 8:0.56046 9:0.5 10:1.50979e-16 
2048 1:0.882353 3:0.825581 4:0.578723 5:0.509091 6:0.829157 7:0.414214 8:1 9:0.5 10:6.43834e-17 
2048 1:0.882353 3:0.825581 4:0.578723 5:0.509091 6:0.829157 7:1 8:0.56046 9:0.5 10:1.50979e-16 
-2048 1:0.882353 3:0.825581 4:0.714894 5:0.490909 6:0.829157 7:0.414214 8:1 9:0.5 10:6.43834e-17 
-2048 1:0.882353 3:0.825581 4:0.714894 5:0.490909 6:0.829157 7:1 8:0.167324 9:0.5 10:1.50979e-16 
2048 1:0.882353 3:0.825581 4:0.714894 5:0.490909 6:0.829157 7:0.0521781 8:0.878514 9:0.5 10:1.08644e-17 
-2048 1:0.882353 3:0.825581 4:0.714894 5:0.494545 6:0.829157 7:0.414214 8:1 9:0.5 10:6.43834e-17 
-2048 1:0.882353 3:0.825581 4:0.714894 5:0.494545 6:0.829157 7:1 8:0.167324 9:0.5 10:1.50979e-16 
2048 1:0.882353 3:0.825581 4:0.714894 5:0.494545 6:0.829157 7:0.0521781 8:0.878514 9:0.5 10:1.08644e-17 
-2048 1:0.882353 3:0.825581 4:0.714894 5:0.498182 6:0.829157 7:0.414214 8:1 9:0.5 10:6.43834e-17 
-2048 1:0.882353 3:0.825581 4:0.714894 5:0.498182 6:0.829157 7:1 8:0.56046 9:0.5 10:1.50979e-16 
2048 1:0.882353 3:0.825581 4:0.714894 5:0.498182 6:0.829157 7:0.0521781 8:0.878514 9:0.5 10:1.08644e-17 
-2048 1:0.882353 3:0.825581 4:0.714894 5:0.501818 6:0.829157 7:0.414214 8:1 9:0.5 10:6.43834e-17 
2048 1:0.882353 3:0.825581 4:0.714894 5:0.501818 6:0.829157 7:1 8:0.56046 9:0.5 10:1.50979e-16 
2048 1:0.882353 3:0.825581 4:0.714894 5:0.501818 6:0.829157 7:0.0521781 8:0.878514 9:0.5 10:1.08644e-17 
2048 1:0.882353 3:0.825581 4:0.714894 5:0.505455 6:0.829157 7:0.414214 8:1 9:0.5 10:6.43834e-17 
2048 1:0.882353 3:0.825581 4:0.714894 5:0.505455 6:0.829157 7:1 8:0.56046 9:0.5 10:1.50979e-16 
2048 1:0.882353 3:0.825581 4:0.714894 5:0.505455 6:0.829157 7:0.0521781 8:0.878514 9:0.5 10:1.08644e-17 
-2048 1:0.882353 3:0.825581 4:0.714894 5:0.509091 6:0.829157 7:0.414214 8:1 9:0.5 10:6.43834e-17 
-2048 1:0.882353 3:0.825581 4:0.714894 5:0.509091 6:0.829157 7:1 8:0.56046 9:0.5 10:1.50979e-16 
-2048 1:0.882353 3:0.825581 4:0.714894 5:0.509091 6:0.829157 7:0.0521781 8:0.878514 9:0.5 10:1.08644e-17 
-2048 1:0.882353 3:0.825581 4:0.851064 5:0.490909 6:0.829157 7:0.414214 8:1 9:0.5 10:6.43834e-17 
2048 1:0.882353 3:0.825581 4:0.851064 5:0.490909 6:0.829157 7:1 8:0.167324 9:0.5 10:1.50979e-16 
-2048 1:0.882353 3:0.825581 4:0.851064 5:0.490909 6:0.829157 7:0.0521781 8:0.878514 9:0.5 10:1.08644e-17 
2048 1:0.882353 3:0.825581 4:0.851064 5:0.494545 6:0.829157 7:1 8:0.167324 9:0.5 10:1.50979e-16 
-2048 1:0.882353 3:0.825581 4:0.851064 5:0.494545 6:0.829157 7:0.0521781 8:0.878514 9:0.5 10:1.08644e-17 
387.013516797562 1:0.882353 3:0.825581 4:0.851064 5:0.498182 6:0.829157 7:0.414214 8:1 9:0.5 10:6.43834e-17 
-2048 1:0.882353 3:0.825581 4:0.851064 5:0.498182 6:0.829157 7:1 8:0.56046 9:0.5 10:1.50979e-16 
-2048 1:0.882353 3:0.825581 4:0.851064 5:0.498182 6:0.829157 7:0.0521781 8:0.878514 9:0.5 10:1.08644e-17 
2048 1:0.882353 3:0.825581 4:0.851064 5:0.501818 6:0.829157 7:0.414214 8:1 9:0.5 10:6.43834e-17 
-2048 1:0.882353 3:0.825581 4:0.851064 5:0.501818 6:0.829157 7:1 8:0.56046 9:0.5 10:1.50979e-16 
-2025.448980562527 1:0.882353 3:0.825581 4:0.851064 5:0.501818 6:0.829157 7:0.0521781 8:0.878514 9:0.5 10:1.08644e-17 
2048 1:0.882353 3:0.825581 4:0.851064 5:0.505455 6:0.829157 7:0.414214 8:1 9:0.5 10:6.43834e-17 
-2048 1:0.882353 3:0.825581 4:0.851064 5:0.505455 6:0.829157 7:1 8:0.56046 9:0.5 10:1.50979e-16 
2048 1:0.882353 3:0.825581 4:0.851064 5:0.509091 6:0.829157 7:0.414214 8:1 9:0.5 10:6.43834e-17 
12.39732921540234 1:0.882353 3:0.825581 4:0.851064 5:0.509091 6:0.829157 7:1 8:0.56046 9:0.5 10:1.50979e-16 
-997.7830046026859 1:1 2:0.513158 3:0.325581 4:0.144681 5:0.313636 6:0.339408 7:0.414214 8:1 9:0.5 10:6.43834e-17 
2048 1:1 2:0.513158 3:0.325581 4:0.144681 5:0.313636 6:0.339408 7:0.776249 8:0.878514 9:0.5 10:1.17902e-16 
-1854.737989558566 1:1 2:0.513158 3:0.325581 4:0.144681 5:0.388182 6:0.339408 7:0.414214 8:1 9:0.5 10:6.43834e-17 
2048 1:1 2:0.513158 3:0.325581 4:0.144681 5:0.388182 6:0.339408 7:0.776249 8:0.878514 9:0.5 10:1.17902e-16 
2048 1:1 2:0.513158 3:0.325581 4:0.144681 5:0.388182 6:0.339408 7:1 8:0.56046 9:0.5 10:1.50979e-16 
-532.6495962944286 1:1 2:0.513158 3:0.325581 4:0.144681 5:0.462727 6:0.339408 7:0.776249 8:0.878514 9:0.5 10:1.17902e-16 
-826.3114596099173 1:1 2:0.513158 3:0.325581 4:0.144681 5:0.462727 6:0.339408 7:1 8:0.56046 9:0.5 10:1.50979e-16 
-2037.317160998015 1:1 2:0.513158 3:0.325581 4:0.144681 5:0.537273 6:0.339408 7:0.776249 8:0.878514 9:0.5 10:1.17902e-16 
-2048 1:1 2:0.513158 3:0.325581 4:0.144681 5:0.537273 6:0.339408 7:1 8:0.56046 9:0.5 10:1.50979e-16 
2048 1:1 2:0.513158 3:0.325581 4:0.144681 5:0.611818 6:0.339408 7:0.776249 8:0.878514 9:0.5 10:1.17902e-16 
-1497.084027284787 1:1 2:0.513158 3:0.325581 4:0.144681 5:0.611818 6:0.339408 7:1 8:0.56046 9:0.5 10:1.50979e-16 
2048 1:1 2:0.513158 3:0.325581 4:0.291064 5:0.313636 6:0.339408 7:0.414214 8:1 9:0.5 10:6.43834e-17 
-2048 1:1 2:0.513158 3:0.325581 4:0.291064 5:0.313636 6:0.339408 7:0.776249 8:0.878514 9:0.5 10:1.17902e-16 
2048 1:1 2:0.513158 3:0.325581 4:0.291064 5:0.388182 6:0.339408 7:0.414214 8:1 9:0.5 10:6.43834e-17 
-2048 1:1 2:0.513158 3:0.325581 4:0.291064 5:0.388182 6:0.339408 7:0.776249 8:0.878514 9:0.5 10:1.17902e-16 
2048 1:1 2:0.513158 3:0.325581 4:0.291064 5:0.462727 6:0.339408 7:0.414214 8:1 9:0.5 10:6.43834e-17 
2048 1:1 2:0.513158 3:0.325581 4:0.291064 5:0.611818 6:0.339408 7:1 8:0.56046 9:0.5 10:1.50979e-16 
-2048 1:1 2:0.513158 3:0.325581 4:0.437447 5:0.313636 6:0.339408 7:0.414214 8:1 9:0.5 10:6.43834e-17 
-1496.604925435815 1:1 2:0.513158 3:0.325581 4:0.437447 5:0.388182 6:0.339408 7:0.414214 8:1 9:0.5 10:6.43834e-17 
2048 1:1 2:0.513158 3:0.325581 4:0.437447 5:0.462727 6:0.339408 7:0.414214 8:1 9:0.5 10:6.43834e-17 
2048 1:1 2:0.513158 3:0.325581 4:0.58383 5:0.313636 6:0.339408 7:0.414214 8:1 9:0.5 10:6.43834e-17 
-2048 1:1 2:0.513158 3:0.325581 4:0.58383 5:0.388182 6:0.339408 7:0.414214 8:1 9:0.5 10:6.43834e-17 
-2048 1:1 2:0.513158 3:0.325581 4:0.58383 5:0.462727 6:0.339408 7:0.414214 8:1 9:0.5 10:6.43834e-17 
-2033.206704132251 1:1 2:0.513158 3:0.325581 4:0.58383 5:0.611818 6:0.339408 7:1 8:0.167324 9:0.5 10:1.50979e-16 
2048 1:1 2:0.513158 3:0.325581 4:0.730213 5:0.313636 6:0.339408 7:0.414214 8:1 9:0.5 10:6.43834e-17 
-1311.299098838056 1:1 2:0.513158 3:0.325581 4:0.730213 5:0.313636 6:0.339408 7:0.0521781 8:0.878514 9:0.5 10:1.08644e-17 
559.6498739703352 1:1 2:0.513158 3:0.325581 4:0.730213 5:0.388182 6:0.339408 7:0.0521781 8:0.878514 9:0.5 10:1.08644e-17 
2048 1:1 2:0.513158 3:0.325581 4:0.730213 5:0.537273 6:0.339408 7:0.0521781 8:0.878514 9:0.5 10:1.08644e-17 
1639.195588265038 1:1 2:0.513158 3:0.325581 4:0.730213 5:0.611818 6:0.339408 7:1 8:0.167324 9:0.5 10:1.50979e-16 
-2048 1:1 2:0.513158 3:0.325581 4:0.730213 5:0.611818 6:0.339408 7:0.0521781 8:0.878514 9:0.5 10:1.08644e-17 
