svm_type epsilon_svr
kernel_type rbf
gamma 8
nr_class 2
total_sv 181
rho 999.764
SV
-0.1194619196071404 2:1 3:0.22093 4:0.361702 5:0.145455 6:0.236902 7:0.776249 8:0.878514 9:0.5 10:1.17902e-16 
-0.3821805622460083 2:1 3:0.22093 4:0.361702 5:0.287273 6:0.236902 7:0.776249 8:0.878514 9:0.5 10:1.17902e-16 
-0.1113760510651422 2:1 3:0.22093 4:0.361702 5:0.570909 6:0.236902 7:1 8:0.56046 9:0.5 10:1.50979e-16 
-0.01018269771801356 2:1 3:0.22093 4:0.361702 5:0.854545 6:0.236902 7:1 8:0.56046 9:0.5 10:1.50979e-16 
0.5 2:1 3:0.22093 4:0.421277 5:0.287273 6:0.236902 7:0.776249 8:0.878514 9:0.5 10:1.17902e-16 
-0.03558418938659808 2:1 3:0.22093 4:0.421277 5:0.429091 6:0.236902 7:0.776249 8:0.878514 9:0.5 10:1.17902e-16 
-0.04654919312862583 2:1 3:0.22093 4:0.421277 5:0.854545 6:0.236902 7:0.776249 8:0.878514 9:0.5 10:1.17902e-16 
-0.2738457635270063 2:1 3:0.22093 4:0.480851 5:0.145455 6:0.236902 7:0.414214 8:1 9:0.5 10:6.43834e-17 
0.5 2:1 3:0.22093 4:0.540426 5:0.145455 6:0.236902 7:0.414214 8:1 9:0.5 10:6.43834e-17 
-0.02072206128245038 2:1 3:0.22093 4:0.540426 5:0.287273 6:0.236902 7:0.414214 8:1 9:0.5 10:6.43834e-17 
-0.1134207398708886 2:1 3:0.22093 4:0.6 5:0.145455 6:0.236902 7:0.776249 8:0.878514 9:0.5 10:1.17902e-16 
-0.07070028598219333 2:1 3:0.22093 4:0.6 5:0.429091 6:0.236902 7:0.0521781 8:0.878514 9:0.5 10:1.08644e-17 
-0.1769336791926241 2:1 3:0.22093 4:0.659574 5:0.145455 6:0.236902 7:0.414214 8:1 9:0.5 10:6.43834e-17 
-0.0115697586078236 2:1 3:0.22093 4:0.659574 5:0.145455 6:0.236902 7:0.0521781 8:0.878514 9:0.5 10:1.08644e-17 
-0.2595531285041799 2:1 3:0.22093 4:0.659574 5:0.287273 6:0.236902 7:0.414214 8:1 9:0.5 10:6.43834e-17 
0.5 2:1 3:0.22093 4:0.659574 5:0.712727 6:0.236902 7:1 8:0.167324 9:0.5 10:1.50979e-16 
-0.1787522790523965 2:1 3:0.22093 4:0.659574 5:0.854545 6:0.236902 7:1 8:0.56046 9:0.5 10:1.50979e-16 
-0.03670459930976459 1:0.0196078 2:0.276316 4:0.357447 5:0.395455 6:0.0205011 7:0.414214 8:1 9:0.5 10:6.43834e-17 
-0.12430179103019 1:0.0196078 2:0.276316 4:0.357447 5:0.395455 6:0.0205011 7:1 8:0.56046 9:0.5 10:1.50979e-16 
-0.02914628653656245 1:0.0196078 2:0.276316 4:0.357447 5:0.520909 6:0.0205011 7:0.414214 8:1 9:0.5 10:6.43834e-17 
-0.01033730077808431 1:0.0196078 2:0.276316 4:0.357447 5:0.604545 6:0.0205011 7:0.776249 8:0.878514 9:0.5 10:1.17902e-16 
-0.1430369795945586 1:0.0196078 2:0.276316 4:0.357447 5:0.604545 6:0.0205011 7:1 8:0.56046 9:0.5 10:1.50979e-16 
-0.06570922250627674 1:0.0196078 2:0.276316 4:0.541277 5:0.479091 6:0.0205011 7:1 8:0.167324 9:0.5 10:1.50979e-16 
-0.03329246477898645 1:0.0196078 2:0.276316 4:0.541277 5:0.479091 6:0.0205011 7:0.0521781 8:0.878514 9:0.5 10:1.08644e-17 
-0.007162538442219231 1:0.0196078 2:0.276316 4:0.602553 5:0.395455 6:0.0205011 7:0.414214 8:1 9:0.5 10:6.43834e-17 
-0.05654351391868823 1:0.0196078 2:0.276316 4:0.602553 5:0.395455 6:0.0205011 7:0.776249 8:0.878514 9:0.5 10:1.17902e-16 
-0.007424360434024887 1:0.0196078 2:0.276316 4:0.602553 5:0.520909 6:0.0205011 7:0.414214 8:1 9:0.5 10:6.43834e-17 
-0.01195316274405357 1:0.0196078 2:0.276316 4:0.602553 5:0.604545 6:0.0205011 7:1 8:0.56046 9:0.5 10:1.50979e-16 
-0.0696668652210343 1:0.0196078 2:0.276316 4:0.602553 5:0.604545 6:0.0205011 7:0.0521781 8:0.878514 9:0.5 10:1.08644e-17 
0.5 1:0.294118 2:0.802632 3:0.406977 4:0.297872 5:0.213636 6:0.419134 7:0.776249 8:0.878514 9:0.5 10:1.17902e-16 
-0.491673646619846 1:0.294118 2:0.802632 3:0.406977 4:0.297872 5:0.328182 6:0.419134 7:0.414214 8:1 9:0.5 10:6.43834e-17 
-0.03640406690630069 1:0.294118 2:0.802632 3:0.406977 4:0.297872 5:0.442727 6:0.419134 7:0.776249 8:0.878514 9:0.5 10:1.17902e-16 
-0.5 1:0.294118 2:0.802632 3:0.406977 4:0.297872 5:0.671818 6:0.419134 7:1 8:0.56046 9:0.5 10:1.50979e-16 
0.5 1:0.294118 2:0.802632 3:0.406977 4:0.297872 5:0.786364 6:0.419134 7:1 8:0.56046 9:0.5 10:1.50979e-16 
0.5 1:0.294118 2:0.802632 3:0.406977 4:0.382979 5:0.328182 6:0.419134 7:0.776249 8:0.878514 9:0.5 10:1.17902e-16 
-0.5 1:0.294118 2:0.802632 3:0.406977 4:0.382979 5:0.442727 6:0.419134 7:0.776249 8:0.878514 9:0.5 10:1.17902e-16 
-0.3547118025530318 1:0.294118 2:0.802632 3:0.406977 4:0.382979 5:0.786364 6:0.419134 7:1 8:0.56046 9:0.5 10:1.50979e-16 
-0.5 1:0.294118 2:0.802632 3:0.406977 4:0.468085 5:0.213636 6:0.419134 7:0.414214 8:1 9:0.5 10:6.43834e-17 
-0.5 1:0.294118 2:0.802632 3:0.406977 4:0.468085 5:0.213636 6:0.419134 7:0.776249 8:0.878514 9:0.5 10:1.17902e-16 
0.5 1:0.294118 2:0.802632 3:0.406977 4:0.468085 5:0.328182 6:0.419134 7:0.414214 8:1 9:0.5 10:6.43834e-17 
0.5 1:0.294118 2:0.802632 3:0.406977 4:0.468085 5:0.671818 6:0.419134 7:1 8:0.167324 9:0.5 10:1.50979e-16 
-0.5 1:0.294118 2:0.802632 3:0.406977 4:0.553191 5:0.213636 6:0.419134 7:0.414214 8:1 9:0.5 10:6.43834e-17 
0.5 1:0.294118 2:0.802632 3:0.406977 4:0.553191 5:0.328182 6:0.419134 7:0.414214 8:1 9:0.5 10:6.43834e-17 
0.5 1:0.294118 2:0.802632 3:0.406977 4:0.638298 5:0.213636 6:0.419134 7:0.414214 8:1 9:0.5 10:6.43834e-17 
0.5 1:0.294118 2:0.802632 3:0.406977 4:0.638298 5:0.328182 6:0.419134 7:0.414214 8:1 9:0.5 10:6.43834e-17 
-0.5 1:0.294118 2:0.802632 3:0.406977 4:0.638298 5:0.442727 6:0.419134 7:0.0521781 8:0.878514 9:0.5 10:1.08644e-17 
0.5 1:0.294118 2:0.802632 3:0.406977 4:0.638298 5:0.557273 6:0.419134 7:0.0521781 8:0.878514 9:0.5 10:1.08644e-17 
-0.4979131235290529 1:0.294118 2:0.802632 3:0.406977 4:0.638298 5:0.671818 6:0.419134 7:1 8:0.167324 9:0.5 10:1.50979e-16 
-0.08757012218897112 1:0.294118 2:0.802632 3:0.406977 4:0.723404 5:0.328182 6:0.419134 7:0.0521781 8:0.878514 9:0.5 10:1.08644e-17 
-0.5 1:0.294118 2:0.802632 3:0.406977 4:0.723404 5:0.442727 6:0.419134 7:0.0521781 8:0.878514 9:0.5 10:1.08644e-17 
0.5 1:0.294118 2:0.802632 3:0.406977 4:0.723404 5:0.557273 6:0.419134 7:0.0521781 8:0.878514 9:0.5 10:1.08644e-17 
-0.3078530212521827 1:0.352941 2:0.5 3:0.232558 4:0.285106 5:0.318182 6:0.248292 7:0.776249 8:0.878514 9:0.5 10:1.17902e-16 
0.5 1:0.352941 2:0.5 3:0.232558 4:0.285106 5:0.390909 6:0.248292 7:1 8:0.56046 9:0.5 10:1.50979e-16 
-0.01718911685671772 1:0.352941 2:0.5 3:0.232558 4:0.285106 5:0.463636 6:0.248292 7:0.776249 8:0.878514 9:0.5 10:1.17902e-16 
-0.282326297180742 1:0.352941 2:0.5 3:0.232558 4:0.285106 5:0.681818 6:0.248292 7:0.776249 8:0.878514 9:0.5 10:1.17902e-16 
0.5 1:0.352941 2:0.5 3:0.232558 4:0.285106 5:0.681818 6:0.248292 7:1 8:0.56046 9:0.5 10:1.50979e-16 
0.5 1:0.352941 2:0.5 3:0.232558 4:0.375319 5:0.536364 6:0.248292 7:1 8:0.56046 9:0.5 10:1.50979e-16 
0.5 1:0.352941 2:0.5 3:0.232558 4:0.375319 5:0.609091 6:0.248292 7:1 8:0.56046 9:0.5 10:1.50979e-16 
-0.4404945816833915 1:0.352941 2:0.5 3:0.232558 4:0.465532 5:0.609091 6:0.248292 7:1 8:0.167324 9:0.5 10:1.50979e-16 
-0.5 1:0.352941 2:0.5 3:0.232558 4:0.465532 5:0.681818 6:0.248292 7:1 8:0.56046 9:0.5 10:1.50979e-16 
-0.1913775325818736 1:0.352941 2:0.5 3:0.232558 4:0.645957 5:0.318182 6:0.248292 7:0.414214 8:1 9:0.5 10:6.43834e-17 
-0.06593993999351667 1:0.352941 2:0.5 3:0.232558 4:0.645957 5:0.463636 6:0.248292 7:0.414214 8:1 9:0.5 10:6.43834e-17 
-0.1478289631335737 1:0.352941 2:0.5 3:0.232558 4:0.645957 5:0.609091 6:0.248292 7:0.0521781 8:0.878514 9:0.5 10:1.08644e-17 
-0.1018756987244916 1:0.784314 2:0.894737 3:1 4:0.0212766 5:0.181818 6:0.544419 7:0.061863 8:0.628276 9:0.0954919 10:0.618037 
-0.07628237389066467 1:0.784314 2:0.894737 3:1 4:0.0212766 5:0.181818 6:0.544419 7:0.279628 8:0.791673 9:0.345492 10:1 
-0.101093099692584 1:0.784314 2:0.894737 3:1 4:1 5:0.309091 6:0.544419 7:0.061863 8:0.0995089 9:0.904508 10:0.618037 
-0.01423869632441881 1:0.784314 2:0.894737 3:1 4:0.0212766 5:0.436364 6:0.544419 7:0.061863 8:0.628276 9:0.0954919 10:0.618037 
-0.07709116162791677 1:0.784314 2:0.894737 3:1 4:0.0212766 5:0.436364 6:0.544419 7:0.279628 8:0.791673 9:0.345492 10:1 
-0.01334043027488317 1:0.784314 2:0.894737 3:1 4:0.0212766 5:0.563636 6:0.544419 7:0.061863 8:0.628276 9:0.0954919 10:0.618037 
-0.1071976411934373 1:0.784314 2:0.894737 3:1 4:0.0212766 5:0.690909 6:0.102506 7:0.849743 8:0.363892 9:1 
-0.1040813427663638 1:0.784314 2:0.894737 3:1 4:1 5:0.690909 6:0.544419 7:0.061863 8:0.0995089 9:0.904508 10:0.618037 
-0.1356169658017108 1:0.784314 2:0.894737 3:1 4:0.0212766 5:0.690909 6:0.544419 7:0.849743 8:0.363892 9:1 
-0.1282087317068423 1:0.784314 2:0.894737 3:1 4:1 5:0.818182 6:0.544419 7:0.849743 8:0.363892 10:1.28767e-16 
-0.1123695984842132 1:0.784314 2:0.894737 3:1 4:0.0212766 5:0.818182 6:0.544419 7:0.061863 8:0.628276 9:0.0954919 10:0.618037 
-0.1121829272934912 1:0.784314 2:0.894737 3:1 4:0.191489 5:1 6:0.102506 7:0.670212 8:0.727785 9:0.0954919 10:0.618037 
-0.1140301730065249 1:0.784314 2:0.894737 3:1 4:0.191489 5:1 6:0.544419 7:0.414214 8:0.813689 10:1.28767e-16 
-0.0406973592351852 1:0.784314 2:0.894737 3:1 4:0.191489 5:1 6:0.544419 7:0.670212 8:0.727785 9:0.0954919 10:0.618037 
-0.1327973278004036 1:0.784314 2:0.894737 3:1 4:0.191489 6:0.544419 7:0.158216 9:0.0954919 10:0.618037 
-0.07363913434202039 1:0.784314 2:0.894737 3:1 4:0.319149 5:1 6:0.544419 7:0.670212 8:0.727785 9:0.0954919 10:0.618037 
-0.08537897118329603 1:0.784314 2:0.894737 3:1 4:0.574468 6:0.544419 8:0.502887 9:0.654508 10:0.999999 
-0.1188387112608588 1:0.784314 2:0.894737 3:1 4:0.702128 5:1 6:0.544419 7:0.414214 8:0.813689 10:1.28767e-16 
-0.1121794409221472 1:0.784314 2:0.894737 3:1 4:0.829787 6:0.102506 8:0.502887 9:0.654508 10:0.999999 
-0.05876751026833 1:0.784314 2:0.894737 3:1 4:0.829787 6:0.544419 8:0.502887 9:0.654508 10:0.999999 
0.5 1:0.784314 2:0.894737 3:1 4:0.191489 5:0.309091 6:1 7:0.776249 8:0.878514 9:0.5 10:1.17902e-16 
0.5 1:0.784314 2:0.894737 3:1 4:0.191489 5:0.436364 6:1 7:0.776249 8:0.878514 9:0.5 10:1.17902e-16 
0.5 1:0.784314 2:0.894737 3:1 4:0.191489 5:0.563636 6:1 7:0.776249 8:0.878514 9:0.5 10:1.17902e-16 
0.5 1:0.784314 2:0.894737 3:1 4:0.191489 5:0.563636 6:1 7:1 8:0.56046 9:0.5 10:1.50979e-16 
-0.5 1:0.784314 2:0.894737 3:1 4:0.191489 5:0.690909 6:1 7:0.776249 8:0.878514 9:0.5 10:1.17902e-16 
0.5 1:0.784314 2:0.894737 3:1 4:0.191489 5:0.690909 6:1 7:1 8:0.56046 9:0.5 10:1.50979e-16 
-0.5 1:0.784314 2:0.894737 3:1 4:0.191489 5:0.818182 6:1 7:0.776249 8:0.878514 9:0.5 10:1.17902e-16 
0.5 1:0.784314 2:0.894737 3:1 4:0.191489 5:0.818182 6:1 7:1 8:0.56046 9:0.5 10:1.50979e-16 
0.5 1:0.784314 2:0.894737 3:1 4:0.319149 5:0.181818 6:1 7:0.414214 8:1 9:0.5 10:6.43834e-17 
-0.5 1:0.784314 2:0.894737 3:1 4:0.319149 5:0.181818 6:1 7:0.776249 8:0.878514 9:0.5 10:1.17902e-16 
-0.5 1:0.784314 2:0.894737 3:1 4:0.319149 5:0.309091 6:1 7:0.414214 8:1 9:0.5 10:6.43834e-17 
0.5 1:0.784314 2:0.894737 3:1 4:0.319149 5:0.818182 6:1 7:1 8:0.56046 9:0.5 10:1.50979e-16 
-0.5 1:0.784314 2:0.894737 3:1 4:0.446809 5:0.181818 6:1 7:0.414214 8:1 9:0.5 10:6.43834e-17 
0.5 1:0.784314 2:0.894737 3:1 4:0.446809 5:0.309091 6:1 7:0.414214 8:1 9:0.5 10:6.43834e-17 
0.5 1:0.784314 2:0.894737 3:1 4:0.446809 5:0.818182 6:1 7:1 8:0.56046 9:0.5 10:1.50979e-16 
0.5 1:0.784314 2:0.894737 3:1 4:0.574468 5:0.690909 6:1 7:1 8:0.167324 9:0.5 10:1.50979e-16 
-0.06848095970327679 1:0.784314 2:0.894737 3:1 4:0.702128 5:0.181818 6:1 7:0.414214 8:1 9:0.5 10:6.43834e-17 
0.5 1:0.784314 2:0.894737 3:1 4:0.702128 5:0.436364 6:1 7:0.0521781 8:0.878514 9:0.5 10:1.08644e-17 
0.5 1:0.784314 2:0.894737 3:1 4:0.702128 5:0.690909 6:1 7:1 8:0.167324 9:0.5 10:1.50979e-16 
-0.3665679073446221 1:0.784314 2:0.894737 3:1 4:0.829787 5:0.309091 6:1 7:0.0521781 8:0.878514 9:0.5 10:1.08644e-17 
-0.5 1:0.784314 2:0.894737 3:1 4:0.829787 5:0.436364 6:1 7:0.0521781 8:0.878514 9:0.5 10:1.08644e-17 
0.5 1:0.784314 2:0.894737 3:1 4:0.829787 5:0.563636 6:1 7:0.0521781 8:0.878514 9:0.5 10:1.08644e-17 
-0.5 1:0.784314 2:0.894737 3:1 4:0.829787 5:0.690909 6:1 7:1 8:0.167324 9:0.5 10:1.50979e-16 
-0.4527916979100052 1:0.784314 2:0.894737 3:1 4:0.829787 5:0.818182 6:1 7:1 8:0.56046 9:0.5 10:1.50979e-16 
-0.001357610627508259 1:0.882353 3:0.825581 5:0.490909 7:0.279628 8:0.791673 9:0.345492 10:1 
-0.134444329681206 1:0.882353 3:0.825581 5:0.509091 7:0.279628 8:0.791673 9:0.345492 10:1 
-0.5 1:0.882353 3:0.825581 4:0.170213 5:0.494545 6:0.829157 7:1 8:0.56046 9:0.5 10:1.50979e-16 
0.5 1:0.882353 3:0.825581 4:0.170213 5:0.498182 6:0.829157 7:0.776249 8:0.878514 9:0.5 10:1.17902e-16 
-0.1373456917859994 1:0.882353 3:0.825581 4:0.170213 5:0.498182 6:0.829157 7:1 8:0.56046 9:0.5 10:1.50979e-16 
0.2129700751644152 1:0.882353 3:0.825581 4:0.170213 5:0.501818 6:0.829157 7:0.414214 8:1 9:0.5 10:6.43834e-17 
0.1733458875646749 1:0.882353 3:0.825581 4:0.170213 5:0.505455 6:0.829157 7:0.414214 8:1 9:0.5 10:6.43834e-17 
0.5 1:0.882353 3:0.825581 4:0.170213 5:0.505455 6:0.829157 7:0.776249 8:0.878514 9:0.5 10:1.17902e-16 
0.004778864995797055 1:0.882353 3:0.825581 4:0.170213 5:0.509091 6:0.829157 7:0.776249 8:0.878514 9:0.5 10:1.17902e-16 
-0.004898206608264647 1:0.882353 3:0.825581 4:0.170213 5:0.509091 6:0.829157 7:1 8:0.56046 9:0.5 10:1.50979e-16 
-0.5 1:0.882353 3:0.825581 4:0.306383 5:0.490909 6:0.829157 7:0.776249 8:0.878514 9:0.5 10:1.17902e-16 
-0.5 1:0.882353 3:0.825581 4:0.306383 5:0.494545 6:0.829157 7:0.414214 8:1 9:0.5 10:6.43834e-17 
-0.4732226943392215 1:0.882353 3:0.825581 4:0.306383 5:0.494545 6:0.829157 7:0.776249 8:0.878514 9:0.5 10:1.17902e-16 
-0.2022902489489337 1:0.882353 3:0.825581 4:0.306383 5:0.498182 6:0.829157 7:0.414214 8:1 9:0.5 10:6.43834e-17 
-0.5 1:0.882353 3:0.825581 4:0.306383 5:0.498182 6:0.829157 7:1 8:0.56046 9:0.5 10:1.50979e-16 
-0.2877380430697933 1:0.882353 3:0.825581 4:0.306383 5:0.501818 6:0.829157 7:0.776249 8:0.878514 9:0.5 10:1.17902e-16 
-0.5 1:0.882353 3:0.825581 4:0.306383 5:0.501818 6:0.829157 7:1 8:0.56046 9:0.5 10:1.50979e-16 
-0.5 1:0.882353 3:0.825581 4:0.306383 5:0.505455 6:0.829157 7:0.414214 8:1 9:0.5 10:6.43834e-17 
-0.5 1:0.882353 3:0.825581 4:0.306383 5:0.505455 6:0.829157 7:0.776249 8:0.878514 9:0.5 10:1.17902e-16 
-0.5 1:0.882353 3:0.825581 4:0.306383 5:0.505455 6:0.829157 7:1 8:0.56046 9:0.5 10:1.50979e-16 
0.5 1:0.882353 3:0.825581 4:0.442553 5:0.490909 6:0.829157 7:0.414214 8:1 9:0.5 10:6.43834e-17 
0.5 1:0.882353 3:0.825581 4:0.442553 5:0.490909 6:0.829157 7:0.776249 8:0.878514 9:0.5 10:1.17902e-16 
0.5 1:0.882353 3:0.825581 4:0.442553 5:0.490909 6:0.829157 7:1 8:0.56046 9:0.5 10:1.50979e-16 
0.5 1:0.882353 3:0.825581 4:0.442553 5:0.494545 6:0.829157 7:1 8:0.56046 9:0.5 10:1.50979e-16 
-0.5 1:0.882353 3:0.825581 4:0.442553 5:0.498182 6:0.829157 7:0.414214 8:1 9:0.5 10:6.43834e-17 
0.5 1:0.882353 3:0.825581 4:0.442553 5:0.498182 6:0.829157 7:1 8:0.56046 9:0.5 10:1.50979e-16 
-0.5 1:0.882353 3:0.825581 4:0.442553 5:0.501818 6:0.829157 7:0.414214 8:1 9:0.5 10:6.43834e-17 
0.5 1:0.882353 3:0.825581 4:0.442553 5:0.501818 6:0.829157 7:1 8:0.56046 9:0.5 10:1.50979e-16 
0.5 1:0.882353 3:0.825581 4:0.442553 5:0.505455 6:0.829157 7:0.414214 8:1 9:0.5 10:6.43834e-17 
0.5 1:0.882353 3:0.825581 4:0.442553 5:0.505455 6:0.829157 7:1 8:0.56046 9:0.5 10:1.50979e-16 
-0.5 1:0.882353 3:0.825581 4:0.442553 5:0.509091 6:0.829157 7:0.414214 8:1 9:0.5 10:6.43834e-17 
0.5 1:0.882353 3:0.825581 4:0.578723 5:0.490909 6:0.829157 7:0.414214 8:1 9:0.5 10:6.43834e-17 
0.5 1:0.882353 3:0.825581 4:0.578723 5:0.494545 6:0.829157 7:0.414214 8:1 9:0.5 10:6.43834e-17 
0.5 1:0.882353 3:0.825581 4:0.578723 5:0.494545 6:0.829157 7:1 8:0.56046 9:0.5 10:1.50979e-16 
0.5 1:0.882353 3:0.825581 4:0.578723 5:0.498182 6:0.829157 7:0.414214 8:1 9:0.5 10:6.43834e-17 
0.5 1:0.882353 3:0.825581 4:0.578723 5:0.501818 6:0.829157 7:0.414214 8:1 9:0.5 10:6.43834e-17 
0.5 1:0.882353 3:0.825581 4:0.578723 5:0.501818 6:0.829157 7:1 8:0.56046 9:0.5 10:1.50979e-16 
0.5 1:0.882353 3:0.825581 4:0.578723 5:0.505455 6:0.829157 7:0.414214 8:1 9:0.5 10:6.43834e-17 
0.5 1:0.882353 3:0.825581 4:0.578723 5:0.505455 6:0.829157 7:1 8:0.56046 9:0.5 10:1.50979e-16 
0.5 1:0.882353 3:0.825581 4:0.578723 5:0.509091 6:0.829157 7:0.414214 8:1 9:0.5 10:6.43834e-17 
0.5 1:0.882353 3:0.825581 4:0.578723 5:0.509091 6:0.829157 7:1 8:0.56046 9:0.5 10:1.50979e-16 
-0.5 1:0.882353 3:0.825581 4:0.714894 5:0.490909 6:0.829157 7:0.414214 8:1 9:0.5 10:6.43834e-17 
-0.3275555002399189 1:0.882353 3:0.825581 4:0.714894 5:0.490909 6:0.829157 7:1 8:0.167324 9:0.5 10:1.50979e-16 
-0.5 1:0.882353 3:0.825581 4:0.714894 5:0.494545 6:0.829157 7:0.414214 8:1 9:0.5 10:6.43834e-17 
-0.5 1:0.882353 3:0.825581 4:0.714894 5:0.494545 6:0.829157 7:1 8:0.167324 9:0.5 10:1.50979e-16 
0.5 1:0.882353 3:0.825581 4:0.714894 5:0.494545 6:0.829157 7:0.0521781 8:0.878514 9:0.5 10:1.08644e-17 
-0.5 1:0.882353 3:0.825581 4:0.714894 5:0.498182 6:0.829157 7:0.414214 8:1 9:0.5 10:6.43834e-17 
-0.5 1:0.882353 3:0.825581 4:0.714894 5:0.498182 6:0.829157 7:1 8:0.56046 9:0.5 10:1.50979e-16 
0.5 1:0.882353 3:0.825581 4:0.714894 5:0.498182 6:0.829157 7:0.0521781 8:0.878514 9:0.5 10:1.08644e-17 
0.5 1:0.882353 3:0.825581 4:0.714894 5:0.501818 6:0.829157 7:1 8:0.56046 9:0.5 10:1.50979e-16 
0.5 1:0.882353 3:0.825581 4:0.714894 5:0.505455 6:0.829157 7:1 8:0.56046 9:0.5 10:1.50979e-16 
0.5 1:0.882353 3:0.825581 4:0.714894 5:0.505455 6:0.829157 7:0.0521781 8:0.878514 9:0.5 10:1.08644e-17 
-0.5 1:0.882353 3:0.825581 4:0.714894 5:0.509091 6:0.829157 7:1 8:0.56046 9:0.5 10:1.50979e-16 
-0.5 1:0.882353 3:0.825581 4:0.714894 5:0.509091 6:0.829157 7:0.0521781 8:0.878514 9:0.5 10:1.08644e-17 
-0.455558467352034 1:0.882353 3:0.825581 4:0.851064 5:0.490909 6:0.829157 7:0.0521781 8:0.878514 9:0.5 10:1.08644e-17 
0.05644060683445228 1:0.882353 3:0.825581 4:0.851064 5:0.494545 6:0.829157 7:1 8:0.167324 9:0.5 10:1.50979e-16 
-0.5 1:0.882353 3:0.825581 4:0.851064 5:0.494545 6:0.829157 7:0.0521781 8:0.878514 9:0.5 10:1.08644e-17 
-0.2479088126707077 1:0.882353 3:0.825581 4:0.851064 5:0.509091 6:0.829157 7:0.414214 8:1 9:0.5 10:6.43834e-17 
-0.5 1:0.882353 3:0.825581 4:0.851064 5:0.509091 6:0.829157 7:1 8:0.56046 9:0.5 10:1.50979e-16 
-0.006066942158654173 1:0.882353 3:0.825581 4:0.851064 5:0.509091 6:0.829157 7:0.0521781 8:0.878514 9:0.5 10:1.08644e-17 
-0.06064629601402716 1:1 2:0.513158 3:0.325581 4:0.144681 5:0.313636 6:0.339408 7:0.414214 8:1 9:0.5 10:6.43834e-17 
-0.07472272662332756 1:1 2:0.513158 3:0.325581 4:0.144681 5:0.388182 6:0.339408 7:1 8:0.56046 9:0.5 10:1.50979e-16 
-0.04148879929412329 1:1 2:0.513158 3:0.325581 4:0.144681 5:0.611818 6:0.339408 7:0.776249 8:0.878514 9:0.5 10:1.17902e-16 
-0.5 1:1 2:0.513158 3:0.325581 4:0.144681 5:0.611818 6:0.339408 7:1 8:0.56046 9:0.5 10:1.50979e-16 
-0.07224869606145665 1:1 2:0.513158 3:0.325581 4:0.291064 5:0.313636 6:0.339408 7:0.776249 8:0.878514 9:0.5 10:1.17902e-16 
0.5 1:1 2:0.513158 3:0.325581 4:0.291064 5:0.611818 6:0.339408 7:1 8:0.56046 9:0.5 10:1.50979e-16 
-0.09599892447720208 1:1 2:0.513158 3:0.325581 4:0.437447 5:0.313636 6:0.339408 7:0.414214 8:1 9:0.5 10:6.43834e-17 
0.5 1:1 2:0.513158 3:0.325581 4:0.58383 5:0.313636 6:0.339408 7:0.414214 8:1 9:0.5 10:6.43834e-17 
-0.4827824705141175 1:1 2:0.513158 3:0.325581 4:0.58383 5:0.388182 6:0.339408 7:0.414214 8:1 9:0.5 10:6.43834e-17 
-0.1444680818284815 1:1 2:0.513158 3:0.325581 4:0.58383 5:0.611818 6:0.339408 7:1 8:0.167324 9:0.5 10:1.50979e-16 
-0.3221029126854256 1:1 2:0.513158 3:0.325581 4:0.730213 5:0.462727 6:0.339408 7:0.0521781 8:0.878514 9:0.5 10:1.08644e-17 
0.5 1:1 2:0.513158 3:0.325581 4:0.730213 5:0.537273 6:0.339408 7:0.0521781 8:0.878514 9:0.5 10:1.08644e-17 
-0.02684516927628713 1:1 2:0.513158 3:0.325581 4:0.730213 5:0.611818 6:0.339408 7:1 8:0.167324 9:0.5 10:1.50979e-16 
-0.3127033406002268 1:1 2:0.513158 3:0.325581 4:0.730213 5:0.611818 6:0.339408 7:0.0521781 8:0.878514 9:0.5 10:1.08644e-17 
