svm_type epsilon_svr
kernel_type rbf
gamma 0.0078125
nr_class 2
total_sv 4
rho -0.0999717
SV
-0.03125 1:-0.411765 2:0.605263 3:-0.186047 4:-0.234043 5:-0.343636 6:-0.161731 7:-0.171573 8:1 9:-1.11022e-16 10:-1 
0.03125 1:-0.411765 2:0.605263 3:-0.186047 4:-0.0638298 5:-0.343636 6:-0.161731 7:-0.171573 8:1 9:-1.11022e-16 10:-1 
0.03125 1:-0.411765 2:0.605263 3:-0.186047 4:0.106383 5:-0.343636 6:-0.161731 7:-0.171573 8:1 9:-1.11022e-16 10:-1 
-0.03125 1:-0.411765 2:0.605263 3:-0.186047 4:0.276596 5:-0.343636 6:-0.161731 7:-0.171573 8:1 9:-1.11022e-16 10:-1 
